digraph Tree {
node [shape=box, style="filled, rounded", color="black", fontname=helvetica] ;
edge [fontname=helvetica] ;
0 [label="X[1] <= 44.5\ngini = 0.37\nsamples = 15556\nvalue = [11681, 3875]", fillcolor="#eeab7b"] ;
1 [label="X[0] <= 10.5\ngini = 0.5\nsamples = 3813\nvalue = [1812, 2001]", fillcolor="#ecf6fd"] ;
0 -> 1 [labeldistance=2.5, labelangle=45, headlabel="True"] ;
2 [label="X[1] <= 39.5\ngini = 0.49\nsamples = 2610\nvalue = [1511, 1099]", fillcolor="#f8ddc9"] ;
1 -> 2 ;
3 [label="X[0] <= 7.5\ngini = 0.5\nsamples = 1596\nvalue = [815, 781]", fillcolor="#fefaf7"] ;
2 -> 3 ;
4 [label="X[0] <= 5.5\ngini = 0.47\nsamples = 655\nvalue = [403, 252]", fillcolor="#f5d0b5"] ;
3 -> 4 ;
5 [label="gini = 0.44\nsamples = 230\nvalue = [155, 75]", fillcolor="#f2be99"] ;
4 -> 5 ;
6 [label="gini = 0.49\nsamples = 425\nvalue = [248, 177]", fillcolor="#f8dbc6"] ;
4 -> 6 ;
7 [label="X[2] <= 52.5\ngini = 0.49\nsamples = 941\nvalue = [412, 529]", fillcolor="#d3e9f9"] ;
3 -> 7 ;
8 [label="gini = 0.49\nsamples = 903\nvalue = [384, 519]", fillcolor="#cbe6f8"] ;
7 -> 8 ;
9 [label="gini = 0.39\nsamples = 38\nvalue = [28, 10]", fillcolor="#eeae80"] ;
7 -> 9 ;
10 [label="X[0] <= 8.36\ngini = 0.43\nsamples = 1014\nvalue = [696, 318]", fillcolor="#f1bb93"] ;
2 -> 10 ;
11 [label="X[0] <= 6.5\ngini = 0.38\nsamples = 649\nvalue = [484, 165]", fillcolor="#eeac7c"] ;
10 -> 11 ;
12 [label="gini = 0.33\nsamples = 327\nvalue = [260, 67]", fillcolor="#eca16c"] ;
11 -> 12 ;
13 [label="gini = 0.42\nsamples = 322\nvalue = [224, 98]", fillcolor="#f0b890"] ;
11 -> 13 ;
14 [label="X[1] <= 43.5\ngini = 0.49\nsamples = 365\nvalue = [212, 153]", fillcolor="#f8dcc8"] ;
10 -> 14 ;
15 [label="gini = 0.47\nsamples = 270\nvalue = [166, 104]", fillcolor="#f5d0b5"] ;
14 -> 15 ;
16 [label="gini = 0.5\nsamples = 95\nvalue = [46, 49]", fillcolor="#f3f9fd"] ;
14 -> 16 ;
17 [label="X[0] <= 14.5\ngini = 0.38\nsamples = 1203\nvalue = [301, 902]", fillcolor="#7bbeee"] ;
1 -> 17 ;
18 [label="X[1] <= 39.5\ngini = 0.43\nsamples = 840\nvalue = [267, 573]", fillcolor="#95cbf1"] ;
17 -> 18 ;
19 [label="X[0] <= 11.5\ngini = 0.39\nsamples = 546\nvalue = [146, 400]", fillcolor="#81c1ee"] ;
18 -> 19 ;
20 [label="gini = 0.46\nsamples = 196\nvalue = [69, 127]", fillcolor="#a5d2f3"] ;
19 -> 20 ;
21 [label="gini = 0.34\nsamples = 350\nvalue = [77, 273]", fillcolor="#71b9ec"] ;
19 -> 21 ;
22 [label="X[3] <= 21835.24\ngini = 0.48\nsamples = 294\nvalue = [121, 173]", fillcolor="#c3e2f7"] ;
18 -> 22 ;
23 [label="gini = 0.49\nsamples = 289\nvalue = [121, 168]", fillcolor="#c8e4f8"] ;
22 -> 23 ;
24 [label="gini = 0.0\nsamples = 5\nvalue = [0, 5]", fillcolor="#399de5"] ;
22 -> 24 ;
25 [label="X[0] <= 18.5\ngini = 0.17\nsamples = 363\nvalue = [34, 329]", fillcolor="#4da7e8"] ;
17 -> 25 ;
26 [label="X[1] <= 38.5\ngini = 0.24\nsamples = 245\nvalue = [34, 211]", fillcolor="#59ade9"] ;
25 -> 26 ;
27 [label="gini = 0.15\nsamples = 147\nvalue = [12, 135]", fillcolor="#4ba6e7"] ;
26 -> 27 ;
28 [label="gini = 0.35\nsamples = 98\nvalue = [22, 76]", fillcolor="#72b9ed"] ;
26 -> 28 ;
29 [label="gini = 0.0\nsamples = 118\nvalue = [0, 118]", fillcolor="#399de5"] ;
25 -> 29 ;
30 [label="X[0] <= 12.5\ngini = 0.27\nsamples = 11743\nvalue = [9869, 1874]", fillcolor="#ea995f"] ;
0 -> 30 [labeldistance=2.5, labelangle=-45, headlabel="False"] ;
31 [label="X[0] <= 8.36\ngini = 0.23\nsamples = 10630\nvalue = [9251, 1379]", fillcolor="#e99457"] ;
30 -> 31 ;
32 [label="X[0] <= 7.5\ngini = 0.16\nsamples = 6050\nvalue = [5537, 513]", fillcolor="#e78d4b"] ;
31 -> 32 ;
33 [label="X[0] <= 5.5\ngini = 0.13\nsamples = 4595\nvalue = [4269, 326]", fillcolor="#e78b48"] ;
32 -> 33 ;
34 [label="gini = 0.1\nsamples = 1917\nvalue = [1819, 98]", fillcolor="#e68844"] ;
33 -> 34 ;
35 [label="gini = 0.16\nsamples = 2678\nvalue = [2450, 228]", fillcolor="#e78d4b"] ;
33 -> 35 ;
36 [label="X[1] <= 63.5\ngini = 0.22\nsamples = 1455\nvalue = [1268, 187]", fillcolor="#e99456"] ;
32 -> 36 ;
37 [label="gini = 0.2\nsamples = 963\nvalue = [856, 107]", fillcolor="#e89152"] ;
36 -> 37 ;
38 [label="gini = 0.27\nsamples = 492\nvalue = [412, 80]", fillcolor="#ea995f"] ;
36 -> 38 ;
39 [label="X[0] <= 10.5\ngini = 0.31\nsamples = 4580\nvalue = [3714, 866]", fillcolor="#eb9e67"] ;
31 -> 39 ;
40 [label="X[1] <= 53.4\ngini = 0.28\nsamples = 3074\nvalue = [2564, 510]", fillcolor="#ea9a60"] ;
39 -> 40 ;
41 [label="gini = 0.21\nsamples = 902\nvalue = [792, 110]", fillcolor="#e99254"] ;
40 -> 41 ;
42 [label="gini = 0.3\nsamples = 2172\nvalue = [1772, 400]", fillcolor="#eb9d66"] ;
40 -> 42 ;
43 [label="X[2] <= 5.5\ngini = 0.36\nsamples = 1506\nvalue = [1150, 356]", fillcolor="#eda876"] ;
39 -> 43 ;
44 [label="gini = 0.27\nsamples = 170\nvalue = [143, 27]", fillcolor="#ea995e"] ;
43 -> 44 ;
45 [label="gini = 0.37\nsamples = 1336\nvalue = [1007, 329]", fillcolor="#edaa7a"] ;
43 -> 45 ;
46 [label="X[0] <= 15.5\ngini = 0.49\nsamples = 1113\nvalue = [618, 495]", fillcolor="#fae6d8"] ;
30 -> 46 ;
47 [label="X[3] <= 820.0\ngini = 0.47\nsamples = 858\nvalue = [529, 329]", fillcolor="#f5cfb4"] ;
46 -> 47 ;
48 [label="X[3] <= 310.0\ngini = 0.5\nsamples = 261\nvalue = [138, 123]", fillcolor="#fcf1e9"] ;
47 -> 48 ;
49 [label="gini = 0.49\nsamples = 224\nvalue = [126, 98]", fillcolor="#f9e3d3"] ;
48 -> 49 ;
50 [label="gini = 0.44\nsamples = 37\nvalue = [12, 25]", fillcolor="#98ccf1"] ;
48 -> 50 ;
51 [label="X[2] <= 46.5\ngini = 0.45\nsamples = 597\nvalue = [391, 206]", fillcolor="#f3c3a1"] ;
47 -> 51 ;
52 [label="gini = 0.44\nsamples = 520\nvalue = [351, 169]", fillcolor="#f2be98"] ;
51 -> 52 ;
53 [label="gini = 0.5\nsamples = 77\nvalue = [40, 37]", fillcolor="#fdf6f0"] ;
51 -> 53 ;
54 [label="X[0] <= 19.5\ngini = 0.45\nsamples = 255\nvalue = [89, 166]", fillcolor="#a3d2f3"] ;
46 -> 54 ;
55 [label="X[1] <= 57.5\ngini = 0.48\nsamples = 221\nvalue = [88, 133]", fillcolor="#bcdef6"] ;
54 -> 55 ;
56 [label="gini = 0.44\nsamples = 144\nvalue = [47, 97]", fillcolor="#99ccf2"] ;
55 -> 56 ;
57 [label="gini = 0.5\nsamples = 77\nvalue = [41, 36]", fillcolor="#fcf0e7"] ;
55 -> 57 ;
58 [label="X[2] <= 15.5\ngini = 0.06\nsamples = 34\nvalue = [1, 33]", fillcolor="#3fa0e6"] ;
54 -> 58 ;
59 [label="gini = 0.24\nsamples = 7\nvalue = [1, 6]", fillcolor="#5aade9"] ;
58 -> 59 ;
60 [label="gini = 0.0\nsamples = 27\nvalue = [0, 27]", fillcolor="#399de5"] ;
58 -> 60 ;
}